tree
version=v4
num_class=1
num_tree_per_iteration=1
label_index=0
max_feature_idx=173
objective=binary sigmoid:1
feature_names=Column_0 Column_1 Column_2 Column_3 Column_4 Column_5 Column_6 Column_7 Column_8 Column_9 Column_10 Column_11 Column_12 Column_13 Column_14 Column_15 Column_16 Column_17 Column_18 Column_19 Column_20 Column_21 Column_22 Column_23 Column_24 Column_25 Column_26 Column_27 Column_28 Column_29 Column_30 Column_31 Column_32 Column_33 Column_34 Column_35 Column_36 Column_37 Column_38 Column_39 Column_40 Column_41 Column_42 Column_43 Column_44 Column_45 Column_46 Column_47 Column_48 Column_49 Column_50 Column_51 Column_52 Column_53 Column_54 Column_55 Column_56 Column_57 Column_58 Column_59 Column_60 Column_61 Column_62 Column_63 Column_64 Column_65 Column_66 Column_67 Column_68 Column_69 Column_70 Column_71 Column_72 Column_73 Column_74 Column_75 Column_76 Column_77 Column_78 Column_79 Column_80 Column_81 Column_82 Column_83 Column_84 Column_85 Column_86 Column_87 Column_88 Column_89 Column_90 Column_91 Column_92 Column_93 Column_94 Column_95 Column_96 Column_97 Column_98 Column_99 Column_100 Column_101 Column_102 Column_103 Column_104 Column_105 Column_106 Column_107 Column_108 Column_109 Column_110 Column_111 Column_112 Column_113 Column_114 Column_115 Column_116 Column_117 Column_118 Column_119 Column_120 Column_121 Column_122 Column_123 Column_124 Column_125 Column_126 Column_127 Column_128 Column_129 Column_130 Column_131 Column_132 Column_133 Column_134 Column_135 Column_136 Column_137 Column_138 Column_139 Column_140 Column_141 Column_142 Column_143 Column_144 Column_145 Column_146 Column_147 Column_148 Column_149 Column_150 Column_151 Column_152 Column_153 Column_154 Column_155 Column_156 Column_157 Column_158 Column_159 Column_160 Column_161 Column_162 Column_163 Column_164 Column_165 Column_166 Column_167 Column_168 Column_169 Column_170 Column_171 Column_172 Column_173
feature_infos=[0.80413000000000001:151.9785] [0.80433500000000002:152.00299999999999] [0.80411999999999995:151.958] [0.80427000000000004:151.9795] none [0:100] [-0.0019966576438434913:0.0034077221458517215] [0.80427282071421446:151.98026953597144] [0.80426567928578585:151.97833046402849] [0:0.0074999999999931788] [-0.00032938076416332278:0.00031276852824290075] [1.5085971178183409e-05:0.00047723427924471475] [3.771535467376755e-06:0.00032948929159797296] [0:0.00019740348614538577] [0:0.00021649239029255355] [0.01538461065099414:0.99999999862068978] [-0.99470690818156393:113.59887602308302] [-0.99470699526191098:113.5936894192546] [-0.99470727389976832:113.62741073853861] [-0.99470763956743879:113.62665620378475] [-1:1] [-1.3147106540389193e-05:2.2425790088871277e-05] [0:1] [0:1.1546536077242404] [7.5430709350390729e-11:9.4350090197481336e-05] none [0:4.9730831866356994e-05] [5.1671993471770304e-05:50.802993789376409] [9.1003660953265314e-05:35.923138515422764] [0.80413000000000001:151.9785] [0.80433500000000002:152.00299999999999] [0.80411999999999995:151.958] [0.80427000000000004:151.9795] none [0:100] [-0.0019966576438434913:0.0034077221458517215] [0.80427282071421446:151.98026953597144] [0.80426567928578585:151.97833046402849] [0:0.0074999999999931788] [-0.00032938076416332278:0.00031276852824290075] [1.5085971178183409e-05:0.00047723427924471475] [3.771535467376755e-06:0.00032948929159797296] [0:0.00019740348614538577] [0:0.00021649239029255355] [0.01538461065099414:0.99999999862068978] [-0.99470690818156393:113.59887602308302] [-0.99470699526191098:113.5936894192546] [-0.99470727389976832:113.62741073853861] [-0.99470763956743879:113.62665620378475] [-1:1] [-1.3147106540389193e-05:2.2425790088871277e-05] [0:1] [0:1.1546536077242404] [7.5430709350390729e-11:9.4350090197481336e-05] none [0:4.9730831866356994e-05] [5.1671993471770304e-05:50.802993789376409] [9.1003660953265314e-05:35.923138515422764] [0.80413000000000001:151.9785] [0.80433500000000002:152.00299999999999] [0.80411999999999995:151.958] [0.80427500000000007:151.9795] none [0:100] [-0.0019966576438434913:0.0034077221458517215] [0.80427500000000041:151.98026953597144] [0.80427499999999996:151.97833046402849] [0:0.0074999999999931788] [-0.00032938076416332278:0.00031276852824290075] [1.5085971178183409e-05:0.00047723427924471475] [3.771535467376755e-06:0.00032948929159797296] [0:0.00019740348614538577] [0:0.00021649239029255355] [0.01538461065099414:0.99999999862068978] [-0.99470690818156393:113.59887602308302] [-0.99470699526191098:113.5936894192546] [-0.99470727389976832:113.62741073853861] [-0.99470763956743879:113.62665620378475] [-1:1] [-1.3147106540389193e-05:2.2425790088871277e-05] [0:1] [0:1.1546536077242404] [7.5430709350390729e-11:9.4350090197481336e-05] none [0:4.9730831866356994e-05] [5.1671993471770304e-05:50.802993789376409] [9.1003660953265314e-05:35.923138515422764] [0.80413000000000001:151.9785] [0.80433500000000002:152.00299999999999] [0.80411999999999995:151.958] [0.80427500000000007:151.9795] none [0:100] [-0.0019966576438434913:0.0034077221458517215] [0.80427500000000041:151.98026953597144] [0.80427499999999996:151.97833046402849] [0:0.0074999999999931788] [-0.00032938076416332278:0.00031276852824290075] [1.5085971178183409e-05:0.00048075881932571038] [3.771535467376755e-06:0.00032948929159797296] [0:0.00019740348614538577] [0:0.00021649239029255355] [0.01538461065099414:0.99999999862068978] [-0.99470690818156393:113.59887602308302] [-0.99470699526191098:113.5936894192546] [-0.99470727389976832:113.62741073853861] [-0.99470763956743879:113.62665620378475] [-1:1] [-1.3147106540389193e-05:2.2425790088871277e-05] [0:1] [0:1.1546536077242404] [7.5430709350390729e-11:9.4350090197481336e-05] none [0:4.9730831866356994e-05] [5.1671993471770304e-05:50.802993789376409] [9.1003660953265314e-05:35.923138515422764] [0.80413000000000001:151.9785] [0.80433500000000002:152.00299999999999] [0.80411999999999995:151.958] [0.80427500000000007:151.9795] none [0:100] [-0.0019966576438434913:0.0034077221458517215] [0.80427500000000041:151.98026953597144] [0.80427499999999996:151.97833046402849] [0:0.0074999999999931788] [-0.00045010148923008928:0.00031276852824290075] [1.5085971178183409e-05:0.00048075881932571038] [3.771535467376755e-06:0.00045030417180842676] [0:0.00019740348614538577] [0:0.00021649239029255355] [0:0.99999999862068978] [-0.99470690818156393:113.59887602308302] [-0.99470699526191098:113.5936894192546] [-0.99470727389976832:113.62741073853861] [-0.99470763956743879:113.62665620378475] [-1:1] [-1.7290324495768565e-05:2.2425790088871277e-05] [0:1] [0:1.1546536077242404] [7.5430709350390729e-11:0.00013414433406153418] none [0:6.9277564887664051e-05] [5.1671993471770304e-05:50.802993789376409] [9.1003660953265314e-05:35.923138515422764] [0.80413000000000001:151.9785] [0.80433500000000002:152.00299999999999] [0.80411999999999995:151.958] [0.80432499999999996:151.9795] none [0:100] [-0.0019966576438434913:0.0034077221458517215] [0.80434589398374856:151.98026953597144] [0.80430060601625153:151.97833046402849] [0:0.0074999999999931788] [-0.00045010148923008928:0.00031276852824290075] [1.5085971178183409e-05:0.00048075881932571038] [3.771535467376755e-06:0.00045030417180842676] [0:0.00019740348614538577] [0:0.00021649239029255355] [0:0.99999999862068978] [-0.99470690818156393:113.59887602308302] [-0.99470699526191098:113.5936894192546] [-0.99470727389976832:113.62741073853861] [-0.99470763956743879:113.62665620378475] [-1:1] [-1.7290324495768565e-05:2.2425790088871277e-05] [0:1] [0:1.1546536077242404] [7.5430709350390729e-11:0.00013414433406153418] none [0:6.9277564887664051e-05] [5.1671993471770304e-05:50.802993789376409] [9.1003660953265314e-05:35.923138515422764]
tree_sizes=242 360 363 362 362 362 361 361 363 360 363 363 362 365 365 363 362 362 362 363 361 362 364 364 365 365 360 363 363 365 363 363 359 359 360 360 365 365 365 365 362 360 365 361 358 363 364 365 361 364 362 365 365 365 365 365 363 365 364 357 362 361 361 362 360 361 363 361 363 361 364 361 366 359 365 361 358 359 358 364 359 364 363 363 363 362 362 362 362 362 361 364 363 362 363 363 359 360 360 359 361 358 358 364 359 360 361 364 366 364 363 363 364 363 358 358

Tree=0
num_leaves=1
num_cat=0
split_feature=
split_gain=
threshold=
decision_type=
left_child=
right_child=
leaf_value=-0.91629073187415511
leaf_weight=
leaf_count=49
internal_value=
internal_weight=
internal_count=
is_linear=0
shrinkage=1


Tree=1
num_leaves=2
num_cat=0
split_feature=143
split_gain=9.9225
threshold=0.00016127912678175034
decision_type=8
left_child=-1
right_child=-2
leaf_value=-0.070000000730156872 0.04024999877698722
leaf_weight=4.0816327929496756 4.0816327929496774
leaf_count=20 20
internal_value=-0.014875
internal_weight=8.16327
internal_count=40
is_linear=0
shrinkage=0.05


Tree=2
num_leaves=2
num_cat=0
split_feature=164
split_gain=9.81678
threshold=0.00028099881130838616
decision_type=8
left_child=-1
right_child=-2
leaf_value=-0.069542399014926551 0.040490646702289412
leaf_weight=4.0347581505775452 4.0735957622528076
leaf_count=20 20
internal_value=-0.0142624
internal_weight=8.10835
internal_count=40
is_linear=0
shrinkage=0.05


Tree=3
num_leaves=2
num_cat=0
split_feature=164
split_gain=9.04636
threshold=0.00028099881130838616
decision_type=8
left_child=-1
right_child=-2
leaf_value=-0.068231056067233606 0.037798647442986819
leaf_weight=3.9098547101020813 4.1436460018157959
leaf_count=20 20
internal_value=-0.0136772
internal_weight=8.0535
internal_count=40
is_linear=0
shrinkage=0.05


Tree=4
num_leaves=2
num_cat=0
split_feature=143
split_gain=8.96173
threshold=0.00016127912678175034
decision_type=8
left_child=-1
right_child=-2
leaf_value=-0.06791127699014235 0.038045693039224344
leaf_weight=3.8597199320793152 4.1319355368614197
leaf_count=20 20
internal_value=-0.0131282
internal_weight=7.99166
internal_count=40
is_linear=0
shrinkage=0.05


Tree=5
num_leaves=2
num_cat=0
split_feature=164
split_gain=8.27469
threshold=0.00028099881130838616
decision_type=8
left_child=-1
right_child=-2
leaf_value=-0.066741541613502639 0.03558033386509666
leaf_weight=3.7343513965606689 4.1959272623062134
leaf_count=20 20
internal_value=-0.0126028
internal_weight=7.93028
internal_count=40
is_linear=0
shrinkage=0.05


Tree=6
num_leaves=2
num_cat=0
split_feature=85
split_gain=7.17012
threshold=0.00020210232052485073
decision_type=8
left_child=-1
right_child=-2
leaf_value=-0.042566495386585815 0.052666404028094638
leaf_weight=3.8549457490444183 4.0560836344957352
leaf_count=20 20
internal_value=0.0062606
internal_weight=7.91103
internal_count=40
is_linear=0
shrinkage=0.05


Tree=7
num_leaves=2
num_cat=0
split_feature=143
split_gain=16.1176
threshold=0.00020210232052485073
decision_type=8
left_child=-1
right_child=-2
leaf_value=-0.06679408208384123 0.075862569830546803
leaf_weight=3.8847912847995758 4.0380112826824188
leaf_count=21 19
internal_value=0.00591367
internal_weight=7.9228
internal_count=40
is_linear=0
shrinkage=0.05


Tree=8
num_leaves=2
num_cat=0
split_feature=143
split_gain=14.5379
threshold=0.00020210232052485073
decision_type=8
left_child=-1
right_child=-2
leaf_value=-0.065721111053062511 0.070066889444184502
leaf_weight=3.7541171610355377 4.1503476053476334
leaf_count=21 19
internal_value=0.00557624
internal_weight=7.90446
internal_count=40
is_linear=0
shrinkage=0.05


Tree=9
num_leaves=2
num_cat=0
split_feature=85
split_gain=5.4038
threshold=0.00020210232052485073
decision_type=8
left_child=-1
right_child=-2
leaf_value=-0.039567131790486168 0.04354688628575714
leaf_weight=3.6251153200864792 4.2465377748012543
leaf_count=20 20
internal_value=0.00527057
internal_weight=7.87165
internal_count=40
is_linear=0
shrinkage=0.05


Tree=10
num_leaves=2
num_cat=0
split_feature=80
split_gain=4.48022
threshold=1.0000000180025095e-35
decision_type=2
left_child=-1
right_child=-2
leaf_value=-0.032131653968366737 0.043354525447969978
leaf_weight=3.9967213869094849 3.8679502904415131
leaf_count=21 19
internal_value=0.00499345
internal_weight=7.86467
internal_count=40
is_linear=0
shrinkage=0.05


Tree=11
num_leaves=2
num_cat=0
split_feature=106
split_gain=8.95665
threshold=0.000248925245608489
decision_type=8
left_child=-1
right_child=-2
leaf_value=-0.054071907547741951 0.053775145246379011
leaf_weight=3.7894553542137146 3.9132142961025238
leaf_count=21 19
internal_value=0.000718009
internal_weight=7.70267
internal_count=40
is_linear=0
shrinkage=0.05


Tree=12
num_leaves=2
num_cat=0
split_feature=114
split_gain=8.57608
threshold=0.00020210232052485073
decision_type=8
left_child=-1
right_child=-2
leaf_value=-0.05169605233812298 0.054010460687938189
leaf_weight=3.874509185552597 3.801309734582901
leaf_count=23 17
internal_value=0.000653176
internal_weight=7.67582
internal_count=40
is_linear=0
shrinkage=0.05


Tree=13
num_leaves=2
num_cat=0
split_feature=114
split_gain=7.79145
threshold=0.00020210232052485073
decision_type=8
left_child=-1
right_child=-2
leaf_value=-0.050597490366289626 0.050502964899927762
leaf_weight=3.7635341137647629 3.8604507446289062
leaf_count=23 17
internal_value=0.000595335
internal_weight=7.62398
internal_count=40
is_linear=0
shrinkage=0.05


Tree=14
num_leaves=2
num_cat=0
split_feature=135
split_gain=8.49513
threshold=0.00028099881130838616
decision_type=8
left_child=-1
right_child=-2
leaf_value=-0.052545554099302866 0.053410837306287123
leaf_weight=3.7755678445100784 3.7913263142108917
leaf_count=22 18
internal_value=0.000542972
internal_weight=7.56689
internal_count=40
is_linear=0
shrinkage=0.05


Tree=15
num_leaves=2
num_cat=0
split_feature=143
split_gain=8.97647
threshold=0.033211665261410478
decision_type=8
left_child=-1
right_child=-2
leaf_value=-0.050900380355965315 0.058556946945146175
leaf_weight=3.9894956201314926 3.5307993590831757
leaf_count=25 15
internal_value=0.000490139
internal_weight=7.52029
internal_count=40
is_linear=0
shrinkage=0.05


Tree=16
num_leaves=2
num_cat=0
split_feature=135
split_gain=7.07873
threshold=0.00028099881130838616
decision_type=8
left_child=-1
right_child=-2
leaf_value=-0.039453270279024948 0.05613469899804191
leaf_weight=3.7408930063247681 4.0161454826593399
leaf_count=22 19
internal_value=0.0100366
internal_weight=7.75704
internal_count=41
is_linear=0
shrinkage=0.05


Tree=17
num_leaves=2
num_cat=0
split_feature=172
split_gain=6.80382
threshold=0.00020210232052485073
decision_type=8
left_child=-1
right_child=-2
leaf_value=-0.03884081017314945 0.054972771602995921
leaf_weight=3.7478203177452087 3.990533858537674
leaf_count=23 18
internal_value=0.00953721
internal_weight=7.73835
internal_count=41
is_linear=0
shrinkage=0.05


Tree=18
num_leaves=2
num_cat=0
split_feature=135
split_gain=8.71085
threshold=0.0004082335537651805
decision_type=8
left_child=-1
right_child=-2
leaf_value=-0.040908298990650793 0.065596632236559468
leaf_weight=4.0906292200088501 3.6176773309707642
leaf_count=25 16
internal_value=0.0090768
internal_weight=7.70831
internal_count=41
is_linear=0
shrinkage=0.05


Tree=19
num_leaves=2
num_cat=0
split_feature=135
split_gain=7.85412
threshold=0.0004082335537651805
decision_type=8
left_child=-1
right_child=-2
leaf_value=-0.039770046666711578 0.061601347062409786
leaf_weight=3.9996599331498146 3.6585777550935745
leaf_count=25 16
internal_value=0.00865821
internal_weight=7.65824
internal_count=41
is_linear=0
shrinkage=0.05


Tree=20
num_leaves=2
num_cat=0
split_feature=172
split_gain=7.29614
threshold=0.033211665261410478
decision_type=8
left_child=-1
right_child=-2
leaf_value=-0.039466190801633799 0.058531374819448416
leaf_weight=3.8993746340274811 3.7030569911003113
leaf_count=25 16
internal_value=0.0082673
internal_weight=7.60243
internal_count=41
is_linear=0
shrinkage=0.05


Tree=21
num_leaves=2
num_cat=0
split_feature=106
split_gain=5.26576
threshold=0.000248925245608489
decision_type=8
left_child=-1
right_child=-2
leaf_value=-0.04223087527544344 0.043358852550564563
leaf_weight=3.7360972911119461 3.4624599069356918
leaf_count=23 17
internal_value=-0.00106276
internal_weight=7.19856
internal_count=40
is_linear=0
shrinkage=0.05


Tree=22
num_leaves=2
num_cat=0
split_feature=135
split_gain=7.38632
threshold=0.0004082335537651805
decision_type=8
left_child=-1
right_child=-2
leaf_value=-0.049834062205062424 0.051870568199564926
leaf_weight=3.7204344943165779 3.4319962710142136
leaf_count=25 15
internal_value=-0.00103248
internal_weight=7.15243
internal_count=40
is_linear=0
shrinkage=0.05


Tree=23
num_leaves=2
num_cat=0
split_feature=135
split_gain=6.75586
threshold=0.0004082335537651805
decision_type=8
left_child=-1
right_child=-2
leaf_value=-0.048816668760131479 0.049036958763628548
leaf_weight=3.6108726635575294 3.4483500868082047
leaf_count=25 15
internal_value=-0.00101628
internal_weight=7.05922
internal_count=40
is_linear=0
shrinkage=0.05


Tree=24
num_leaves=2
num_cat=0
split_feature=135
split_gain=6.18562
threshold=0.0004082335537651805
decision_type=8
left_child=-1
right_child=-2
leaf_value=-0.047824335337064157 0.046419740851698699
leaf_weight=3.5042313635349274 3.4603040367364883
leaf_count=25 15
internal_value=-0.000999509
internal_weight=6.96454
internal_count=40
is_linear=0
shrinkage=0.05


Tree=25
num_leaves=2
num_cat=0
split_feature=135
split_gain=5.66853
threshold=0.0004082335537651805
decision_type=8
left_child=-1
right_child=-2
leaf_value=-0.046854270594173658 0.043992167322773008
leaf_weight=3.4005918279290199 3.4684590548276901
leaf_count=25 15
internal_value=-0.000982264
internal_weight=6.86905
internal_count=40
is_linear=0
shrinkage=0.05


Tree=26
num_leaves=2
num_cat=0
split_feature=160
split_gain=3.48093
threshold=0.47972847932088597
decision_type=2
left_child=-1
right_child=-2
leaf_value=0.036433046846651877 -0.035808440025781069
leaf_weight=3.4593054503202438 3.2192557454109192
leaf_count=19 21
internal_value=0.0016106
internal_weight=6.67856
internal_count=40
is_linear=0
shrinkage=0.05


Tree=27
num_leaves=2
num_cat=0
split_feature=106
split_gain=3.86329
threshold=0.00021432213534622327
decision_type=8
left_child=-1
right_child=-2
leaf_value=-0.037286745686435363 0.039011301963741911
leaf_weight=3.2612763270735741 3.377114050090313
leaf_count=22 18
internal_value=0.00152797
internal_weight=6.63839
internal_count=40
is_linear=0
shrinkage=0.05


Tree=28
num_leaves=2
num_cat=0
split_feature=135
split_gain=5.3962
threshold=0.00028099881130838616
decision_type=8
left_child=-1
right_child=-2
leaf_value=-0.045496203491155546 0.045005320689384516
leaf_weight=3.1753283962607384 3.4222510233521461
leaf_count=24 16
internal_value=0.00144812
internal_weight=6.59758
internal_count=40
is_linear=0
shrinkage=0.05


Tree=29
num_leaves=2
num_cat=0
split_feature=108
split_gain=3.16221
threshold=-4.1841594028266212e-08
decision_type=8
left_child=-1
right_child=-2
leaf_value=-0.031770010701200745 0.037985183601316058
leaf_weight=3.4192587062716484 3.0956751778721809
leaf_count=21 19
internal_value=0.00137529
internal_weight=6.51493
internal_count=40
is_linear=0
shrinkage=0.05


Tree=30
num_leaves=2
num_cat=0
split_feature=135
split_gain=4.87351
threshold=0.00028099881130838616
decision_type=8
left_child=-1
right_child=-2
leaf_value=-0.044361495443312769 0.042367997613372926
leaf_weight=3.076541505753994 3.4206973984837532
leaf_count=24 16
internal_value=0.00130026
internal_weight=6.49724
internal_count=40
is_linear=0
shrinkage=0.05


Tree=31
num_leaves=2
num_cat=0
split_feature=135
split_gain=8.27559
threshold=0.00050015133161152036
decision_type=8
left_child=-1
right_child=-2
leaf_value=-0.047343435066525198 0.063071261709602894
leaf_weight=3.4883032143115997 3.304711788892746
leaf_count=26 14
internal_value=0.00637185
internal_weight=6.79302
internal_count=40
is_linear=0
shrinkage=0.05


Tree=32
num_leaves=2
num_cat=0
split_feature=135
split_gain=8.93514
threshold=0.1476828065606384
decision_type=8
left_child=-1
right_child=-2
leaf_value=-0.04756923679609551 0.068580776225500267
leaf_weight=3.5792802423238754 3.0811037570238113
leaf_count=27 13
internal_value=0.00616194
internal_weight=6.66038
internal_count=40
is_linear=0
shrinkage=0.05


Tree=33
num_leaves=2
num_cat=0
split_feature=135
split_gain=8.23639
threshold=0.1476828065606384
decision_type=8
left_child=-1
right_child=-2
leaf_value=-0.046627821058445568 0.066110547367652539
leaf_weight=3.4717167243361473 3.0375225991010666
leaf_count=27 13
internal_value=0.0059813
internal_weight=6.50924
internal_count=40
is_linear=0
shrinkage=0.05


Tree=34
num_leaves=2
num_cat=0
split_feature=135
split_gain=7.60042
threshold=0.1476828065606384
decision_type=8
left_child=-1
right_child=-2
leaf_value=-0.045704254970462994 0.063828178336606062
leaf_weight=3.3674424141645432 2.9900386482477188
leaf_count=27 13
internal_value=0.00581083
internal_weight=6.35748
internal_count=40
is_linear=0
shrinkage=0.05


Tree=35
num_leaves=2
num_cat=0
split_feature=135
split_gain=7.01991
threshold=0.1476828065606384
decision_type=8
left_child=-1
right_child=-2
leaf_value=-0.044796500509271815 0.061707707866680686
leaf_weight=3.2664768919348717 2.9394355714321136
leaf_count=27 13
internal_value=0.00564931
internal_weight=6.20591
internal_count=40
is_linear=0
shrinkage=0.05


Tree=36
num_leaves=2
num_cat=0
split_feature=158
split_gain=4.01966
threshold=4.9028759306375763e-05
decision_type=2
left_child=-1
right_child=-2
leaf_value=0.036075806867696479 -0.047749630844860884
leaf_weight=2.6033958569169044 3.1733955517411232
leaf_count=18 23
internal_value=-0.00997247
internal_weight=5.77679
internal_count=41
is_linear=0
shrinkage=0.05


Tree=37
num_leaves=2
num_cat=0
split_feature=158
split_gain=3.67094
threshold=4.9028759306375763e-05
decision_type=2
left_child=-1
right_child=-2
leaf_value=0.033946739733528394 -0.046332730665031102
leaf_weight=2.6276958361268044 3.1085897237062454
leaf_count=18 23
internal_value=-0.00955806
internal_weight=5.73629
internal_count=41
is_linear=0
shrinkage=0.05


Tree=38
num_leaves=2
num_cat=0
split_feature=165
split_gain=3.63918
threshold=1.0000000180025095e-35
decision_type=10
left_child=-1
right_child=-2
leaf_value=0.032797653820723444 -0.047224836465959596
leaf_weight=2.7097158171236515 2.986790407449007
leaf_count=18 23
internal_value=-0.00915971
internal_weight=5.69651
internal_count=41
is_linear=0
shrinkage=0.05


Tree=39
num_leaves=2
num_cat=0
split_feature=158
split_gain=3.35925
threshold=4.9028759306375763e-05
decision_type=2
left_child=-1
right_child=-2
leaf_value=0.032474292449775781 -0.044756976582852867
leaf_weight=2.6360541731119156 3.0222191326320171
leaf_count=18 23
internal_value=-0.00877678
internal_weight=5.65827
internal_count=41
is_linear=0
shrinkage=0.05


Tree=40
num_leaves=2
num_cat=0
split_feature=150
split_gain=3.33455
threshold=52.272727272680306
decision_type=10
left_child=-1
right_child=-2
leaf_value=0.031391920657791256 -0.045679654003844036
leaf_weight=2.7175475656986237 2.9022134058177471
leaf_count=18 23
internal_value=-0.00841016
internal_weight=5.61976
internal_count=41
is_linear=0
shrinkage=0.05


Tree=41
num_leaves=2
num_cat=0
split_feature=150
split_gain=3.54365
threshold=52.272727272680306
decision_type=10
left_child=-1
right_child=-2
leaf_value=0.048986719309846417 -0.030072774540739589
leaf_weight=2.8237315788865089 2.845823910087347
leaf_count=17 23
internal_value=0.00930294
internal_weight=5.66956
internal_count=40
is_linear=0
shrinkage=0.05


Tree=42
num_leaves=2
num_cat=0
split_feature=165
split_gain=3.19565
threshold=1.0000000180025095e-35
decision_type=10
left_child=-1
right_child=-2
leaf_value=0.046258353761547383 -0.028954444056575504
leaf_weight=2.8403217270970345 2.8089130967855453
leaf_count=17 23
internal_value=0.00886104
internal_weight=5.64923
internal_count=40
is_linear=0
shrinkage=0.05


Tree=43
num_leaves=2
num_cat=0
split_feature=172
split_gain=4.03015
threshold=0.033211665261410478
decision_type=8
left_child=-1
right_child=-2
leaf_value=-0.032468574836268076 0.052194200278843084
leaf_weight=2.9090210646390915 2.7199179381132126
leaf_count=26 14
internal_value=0.0084407
internal_weight=5.62894
internal_count=40
is_linear=0
shrinkage=0.05


Tree=44
num_leaves=2
num_cat=0
split_feature=172
split_gain=3.671
threshold=0.033211665261410478
decision_type=8
left_child=-1
right_child=-2
leaf_value=-0.031470378143649023 0.04980780481443349
leaf_weight=2.8526822328567505 2.708028256893158
leaf_count=26 14
internal_value=0.00811155
internal_weight=5.56071
internal_count=40
is_linear=0
shrinkage=0.05


Tree=45
num_leaves=2
num_cat=0
split_feature=109
split_gain=2.73254
threshold=1.0000000180025095e-35
decision_type=2
left_child=-1
right_child=-2
leaf_value=-0.027967440028064474 0.04256369503610119
leaf_weight=2.7083391807973385 2.7856811098754406
leaf_count=21 19
internal_value=0.00779458
internal_weight=5.49402
internal_count=40
is_linear=0
shrinkage=0.05


Tree=46
num_leaves=2
num_cat=0
split_feature=164
split_gain=3.67985
threshold=0.00050015133161152036
decision_type=8
left_child=-1
right_child=-2
leaf_value=-0.037157761061934053 0.040009421375250084
leaf_weight=3.437834445387125 2.8058017268776894
leaf_count=29 15
internal_value=-0.00247992
internal_weight=6.24364
internal_count=44
is_linear=0
shrinkage=0.05


Tree=47
num_leaves=2
num_cat=0
split_feature=164
split_gain=3.36857
threshold=0.00050015133161152036
decision_type=8
left_child=-1
right_child=-2
leaf_value=-0.036106371325895469 0.038184007839288284
leaf_weight=3.3629735112190247 2.7932633608579636
leaf_count=29 15
internal_value=-0.00239867
internal_weight=6.15624
internal_count=44
is_linear=0
shrinkage=0.05


Tree=48
num_leaves=2
num_cat=0
split_feature=150
split_gain=3.0939
threshold=52.272727272680306
decision_type=10
left_child=-1
right_child=-2
leaf_value=0.033853222809813295 -0.037537871495710799
leaf_weight=2.9951890110969543 3.0763170719146729
leaf_count=19 25
internal_value=-0.00231929
internal_weight=6.07151
internal_count=44
is_linear=0
shrinkage=0.05


Tree=49
num_leaves=2
num_cat=0
split_feature=164
split_gain=3.07318
threshold=0.00050015133161152036
decision_type=8
left_child=-1
right_child=-2
leaf_value=-0.035039904407664427 0.03654236771139726
leaf_weight=3.2706961296498775 2.7686298489570618
leaf_count=29 15
internal_value=-0.00222419
internal_weight=6.03933
internal_count=44
is_linear=0
shrinkage=0.05


Tree=50
num_leaves=2
num_cat=0
split_feature=150
split_gain=2.82672
threshold=52.272727272680306
decision_type=10
left_child=-1
right_child=-2
leaf_value=0.032398406644030729 -0.036482394178043082
leaf_weight=2.9695840403437614 2.9882767200469971
leaf_count=19 25
internal_value=-0.00215005
internal_weight=5.95786
internal_count=44
is_linear=0
shrinkage=0.05


Tree=51
num_leaves=2
num_cat=0
split_feature=164
split_gain=4.72788
threshold=0.00050015133161152036
decision_type=8
left_child=-1
right_child=-2
leaf_value=-0.048816412893187958 0.042176098746180071
leaf_weight=2.9222608357667923 2.7910056710243225
leaf_count=27 15
internal_value=-0.00436538
internal_weight=5.71327
internal_count=42
is_linear=0
shrinkage=0.05


Tree=52
num_leaves=2
num_cat=0
split_feature=164
split_gain=4.36126
threshold=0.00050015133161152036
decision_type=8
left_child=-1
right_child=-2
leaf_value=-0.047805784780091884 0.040412998077896806
leaf_weight=2.8370178304612637 2.7677343562245369
leaf_count=27 15
internal_value=-0.00424165
internal_weight=5.60475
internal_count=42
is_linear=0
shrinkage=0.05


Tree=53
num_leaves=2
num_cat=0
split_feature=164
split_gain=4.02304
threshold=0.00050015133161152036
decision_type=8
left_child=-1
right_child=-2
leaf_value=-0.046806914302261207 0.038722489533629112
leaf_weight=2.7547874562442303 2.7447344288229942
leaf_count=27 15
internal_value=-0.00412039
internal_weight=5.49952
internal_count=42
is_linear=0
shrinkage=0.05


Tree=54
num_leaves=2
num_cat=0
split_feature=164
split_gain=3.71088
threshold=0.00050015133161152036
decision_type=8
left_child=-1
right_child=-2
leaf_value=-0.045818681765154419 0.037100202572485641
leaf_weight=2.6755230873823166 2.7221042811870575
leaf_count=27 15
internal_value=-0.00400145
internal_weight=5.39763
internal_count=42
is_linear=0
shrinkage=0.05


Tree=55
num_leaves=2
num_cat=0
split_feature=64
split_gain=2.99915
threshold=1.0000000180025095e-35
decision_type=10
left_child=-1
right_child=-2
leaf_value=-0.041457447881477767 0.033773839494706817
leaf_weight=2.6525712460279465 2.6465226747095585
leaf_count=23 19
internal_value=-0.00388474
internal_weight=5.29909
internal_count=42
is_linear=0
shrinkage=0.05


Tree=56
num_leaves=2
num_cat=0
split_feature=108
split_gain=3.40688
threshold=1.0000000180025095e-35
decision_type=10
left_child=-1
right_child=-2
leaf_value=-0.034304644076843201 0.047884195486812643
leaf_weight=2.52236732468009 2.5211203098297119
leaf_count=21 19
internal_value=0.00677962
internal_weight=5.04349
internal_count=40
is_linear=0
shrinkage=0.05


Tree=57
num_leaves=2
num_cat=0
split_feature=108
split_gain=3.09175
threshold=1.0000000180025095e-35
decision_type=10
left_child=-1
right_child=-2
leaf_value=-0.033032312689790871 0.045544763987904031
leaf_weight=2.4894042648375034 2.5181663073599339
leaf_count=21 19
internal_value=0.00648189
internal_weight=5.00757
internal_count=40
is_linear=0
shrinkage=0.05


Tree=58
num_leaves=2
num_cat=0
split_feature=109
split_gain=2.80522
threshold=1.0000000180025095e-35
decision_type=2
left_child=-1
right_child=-2
leaf_value=-0.031793093689252767 0.043314555235650559
leaf_weight=2.4579320661723614 2.5155028440058231
leaf_count=21 19
internal_value=0.00619544
internal_weight=4.97343
internal_count=40
is_linear=0
shrinkage=0.05


Tree=59
num_leaves=2
num_cat=0
split_feature=57
split_gain=2.8028
threshold=0.31455416075003495
decision_type=8
left_child=-1
right_child=-2
leaf_value=-0.033646155498670838 0.04176183639958992
leaf_weight=2.348508432507515 2.5925332307815552
leaf_count=22 18
internal_value=0.00591994
internal_weight=4.94104
internal_count=40
is_linear=0
shrinkage=0.05


Tree=60
num_leaves=2
num_cat=0
split_feature=109
split_gain=2.5853
threshold=1.0000000180025095e-35
decision_type=2
left_child=-1
right_child=-2
leaf_value=-0.031268639192386663 0.041347730485633699
leaf_weight=2.4101145546883345 2.494105625897646
leaf_count=21 19
internal_value=0.00566137
internal_weight=4.90422
internal_count=40
is_linear=0
shrinkage=0.05


Tree=61
num_leaves=2
num_cat=0
split_feature=28
split_gain=2.63187
threshold=0.31455416075003495
decision_type=8
left_child=-1
right_child=-2
leaf_value=-0.039580313279467767 0.033610310262669703
leaf_weight=2.6654804162681103 2.2779765650629997
leaf_count=26 17
internal_value=-0.00585361
internal_weight=4.94346
internal_count=43
is_linear=0
shrinkage=0.05


Tree=62
num_leaves=2
num_cat=0
split_feature=28
split_gain=2.41045
threshold=0.31455416075003495
decision_type=8
left_child=-1
right_child=-2
leaf_value=-0.038420580308417752 0.032013281994095949
leaf_weight=2.6100722458213568 2.2721880041062832
leaf_count=26 17
internal_value=-0.00564089
internal_weight=4.88226
internal_count=43
is_linear=0
shrinkage=0.05


Tree=63
num_leaves=2
num_cat=0
split_feature=70
split_gain=2.2391
threshold=0.00010181898659589812
decision_type=2
left_child=-1
right_child=-2
leaf_value=-0.042781243167429886 0.025637405746043691
leaf_weight=2.190647229552269 2.6332112103700638
leaf_count=21 22
internal_value=-0.00543339
internal_weight=4.82386
internal_count=43
is_linear=0
shrinkage=0.05


Tree=64
num_leaves=2
num_cat=0
split_feature=28
split_gain=2.18384
threshold=0.31455416075003495
decision_type=8
left_child=-1
right_child=-2
leaf_value=-0.037017745003614141 0.030638574216480099
leaf_weight=2.5370314475148916 2.2510053776204586
leaf_count=26 17
internal_value=-0.0052104
internal_weight=4.78804
internal_count=43
is_linear=0
shrinkage=0.05


Tree=65
num_leaves=2
num_cat=0
split_feature=150
split_gain=2.24215
threshold=52.272727272680306
decision_type=10
left_child=-1
right_child=-2
leaf_value=0.032343857925064022 -0.036714547980406652
leaf_weight=2.1726101040840149 2.5606496576219797
leaf_count=17 26
internal_value=-0.0050161
internal_weight=4.73326
internal_count=43
is_linear=0
shrinkage=0.05


Tree=66
num_leaves=2
num_cat=0
split_feature=64
split_gain=3.1053
threshold=1.0000000180025095e-35
decision_type=10
left_child=-1
right_child=-2
leaf_value=-0.048123496885072573 0.032084333726210966
leaf_weight=2.317091878503561 2.5181939844042063
leaf_count=23 19
internal_value=-0.00635164
internal_weight=4.83529
internal_count=42
is_linear=0
shrinkage=0.05


Tree=67
num_leaves=2
num_cat=0
split_feature=164
split_gain=3.04134
threshold=0.1476828065606384
decision_type=8
left_child=-1
right_child=-2
leaf_value=-0.044318502580704557 0.035543838614353271
leaf_weight=2.4923998527228832 2.2850822731852531
leaf_count=29 13
internal_value=-0.00612013
internal_weight=4.77748
internal_count=42
is_linear=0
shrinkage=0.05


Tree=68
num_leaves=2
num_cat=0
split_feature=64
split_gain=2.8191
threshold=1.0000000180025095e-35
decision_type=10
left_child=-1
right_child=-2
leaf_value=-0.047038704746467999 0.030669550583470259
leaf_weight=2.2069067470729351 2.4771772380918264
leaf_count=23 19
internal_value=-0.0059427
internal_weight=4.68408
internal_count=42
is_linear=0
shrinkage=0.05


Tree=69
num_leaves=2
num_cat=0
split_feature=164
split_gain=2.75753
threshold=0.1476828065606384
decision_type=8
left_child=-1
right_child=-2
leaf_value=-0.043251936287970812 0.033951954118432978
leaf_weight=2.3793748952448368 2.2505882829427719
leaf_count=29 13
internal_value=-0.00572374
internal_weight=4.62996
internal_count=42
is_linear=0
shrinkage=0.05


Tree=70
num_leaves=2
num_cat=0
split_feature=64
split_gain=2.5626
threshold=1.0000000180025095e-35
decision_type=10
left_child=-1
right_child=-2
leaf_value=-0.045971905958416555 0.029347417435827857
leaf_weight=2.1045343596488237 2.4369966965168715
leaf_count=23 19
internal_value=-0.00555537
internal_weight=4.54153
internal_count=42
is_linear=0
shrinkage=0.05


Tree=71
num_leaves=2
num_cat=0
split_feature=150
split_gain=2.38542
threshold=52.272727272680306
decision_type=10
left_child=-1
right_child=-2
leaf_value=0.046457255517381779 -0.029643353996000661
leaf_weight=2.0828363671898842 2.0366579312831163
leaf_count=17 23
internal_value=0.00883348
internal_weight=4.11949
internal_count=40
is_linear=0
shrinkage=0.05


Tree=72
num_leaves=2
num_cat=0
split_feature=108
split_gain=2.23892
threshold=-3.8886008336129173e-07
decision_type=10
left_child=-1
right_child=-2
leaf_value=-0.026283201218062813 0.047700144920123311
leaf_weight=2.1805489007383585 1.9257166441529987
leaf_count=22 18
internal_value=0.00841279
internal_weight=4.10627
internal_count=40
is_linear=0
shrinkage=0.05


Tree=73
num_leaves=2
num_cat=0
split_feature=150
split_gain=2.15964
threshold=52.272727272680306
decision_type=10
left_child=-1
right_child=-2
leaf_value=0.043892885868705142 -0.028798894351143051
leaf_weight=2.0707056075334549 2.0170578472316265
leaf_count=17 23
internal_value=0.008024
internal_weight=4.08776
internal_count=40
is_linear=0
shrinkage=0.05


Tree=74
num_leaves=2
num_cat=0
split_feature=108
split_gain=2.02961
threshold=-3.8886008336129173e-07
decision_type=10
left_child=-1
right_child=-2
leaf_value=-0.02552941607584789 0.045180242699012767
leaf_weight=2.1633186284452677 1.9115745667368171
leaf_count=22 18
internal_value=0.00764122
internal_weight=4.07489
internal_count=40
is_linear=0
shrinkage=0.05


Tree=75
num_leaves=2
num_cat=0
split_feature=106
split_gain=1.43492
threshold=0.000248925245608489
decision_type=10
left_child=-1
right_child=-2
leaf_value=-0.020609393588871573 0.038982289477853919
leaf_weight=2.157942833378911 1.8992585465312002
leaf_count=25 15
internal_value=0.00728669
internal_weight=4.0572
internal_count=40
is_linear=0
shrinkage=0.05


Tree=76
num_leaves=2
num_cat=0
split_feature=57
split_gain=2.3506
threshold=18.118835392318022
decision_type=8
left_child=-1
right_child=-2
leaf_value=-0.026138637617607464 0.048021156852973056
leaf_weight=2.2219583727419376 2.0583702214062214
leaf_count=27 15
internal_value=0.00952412
internal_weight=4.28033
internal_count=42
is_linear=0
shrinkage=0.05


Tree=77
num_leaves=2
num_cat=0
split_feature=28
split_gain=2.18244
threshold=0.3145658844844979
decision_type=8
left_child=-1
right_child=-2
leaf_value=-0.025339880175730273 0.046488584533079649
leaf_weight=2.2029516026377678 2.0338716246187687
leaf_count=26 16
internal_value=0.00914111
internal_weight=4.23682
internal_count=42
is_linear=0
shrinkage=0.05


Tree=78
num_leaves=2
num_cat=0
split_feature=57
split_gain=1.96459
threshold=18.118835392318022
decision_type=8
left_child=-1
right_child=-2
leaf_value=-0.024240086449249465 0.044236897476948291
leaf_weight=2.1727495063096285 2.0223362781107426
leaf_count=27 15
internal_value=0.0087708
internal_weight=4.19509
internal_count=42
is_linear=0
shrinkage=0.05


Tree=79
num_leaves=2
num_cat=0
split_feature=108
split_gain=1.86178
threshold=1.0000000180025095e-35
decision_type=10
left_child=-1
right_child=-2
leaf_value=-0.02242344126751997 0.044735650427200457
leaf_weight=2.2475840151309967 1.9079748056828973
leaf_count=24 18
internal_value=0.00841185
internal_weight=4.15556
internal_count=42
is_linear=0
shrinkage=0.05


Tree=80
num_leaves=2
num_cat=0
split_feature=28
split_gain=1.83555
threshold=0.3145658844844979
decision_type=8
left_child=-1
right_child=-2
leaf_value=-0.023922666228988237 0.042734753106613246
leaf_weight=2.1550041083246469 1.9832635801285503
leaf_count=26 16
internal_value=0.00802288
internal_weight=4.13827
internal_count=42
is_linear=0
shrinkage=0.05


Tree=81
num_leaves=2
num_cat=0
split_feature=171
split_gain=1.2234
threshold=8.1032172139440363e-06
decision_type=10
left_child=-1
right_child=-2
leaf_value=0.011169265307179328 -0.044933362120928355
leaf_weight=1.9693438131362202 1.9182210750877855
leaf_count=18 22
internal_value=-0.0165132
internal_weight=3.88756
internal_count=40
is_linear=0
shrinkage=0.05


Tree=82
num_leaves=2
num_cat=0
split_feature=79
split_gain=1.87476
threshold=5.4341363809193577e-07
decision_type=8
left_child=-1
right_child=-2
leaf_value=-0.050062994153904694 0.019721253776748437
leaf_weight=1.9628853406757114 1.8882935140281918
leaf_count=21 19
internal_value=-0.0158467
internal_weight=3.85118
internal_count=40
is_linear=0
shrinkage=0.05


Tree=83
num_leaves=2
num_cat=0
split_feature=64
split_gain=1.73069
threshold=7.2033756304268348e-07
decision_type=8
left_child=-1
right_child=-2
leaf_value=-0.048695091494003306 0.018737449263673468
leaf_weight=1.9182750470936296 1.8880724627524617
leaf_count=21 19
internal_value=-0.0152464
internal_weight=3.80635
internal_count=40
is_linear=0
shrinkage=0.05


Tree=84
num_leaves=2
num_cat=0
split_feature=64
split_gain=1.59679
threshold=7.2033756304268348e-07
decision_type=8
left_child=-1
right_child=-2
leaf_value=-0.047332588602201367 0.017801319950324961
leaf_weight=1.8759131412953136 1.8879962451756003
leaf_count=21 19
internal_value=-0.0146611
internal_weight=3.76391
internal_count=40
is_linear=0
shrinkage=0.05


Tree=85
num_leaves=2
num_cat=0
split_feature=64
split_gain=1.47239
threshold=7.2033756304268348e-07
decision_type=8
left_child=-1
right_child=-2
leaf_value=-0.045976663921102751 0.016910791275196017
leaf_weight=1.8357137590646742 1.8880470395088198
leaf_count=21 19
internal_value=-0.014091
internal_weight=3.72376
internal_count=40
is_linear=0
shrinkage=0.05


Tree=86
num_leaves=2
num_cat=0
split_feature=150
split_gain=2.53577
threshold=41.666666666729832
decision_type=10
left_child=-1
right_child=-2
leaf_value=0.035625699689855433 -0.044278352284878197
leaf_weight=1.9592032693326475 2.0131886769086123
leaf_count=17 24
internal_value=-0.00486928
internal_weight=3.97239
internal_count=41
is_linear=0
shrinkage=0.05


Tree=87
num_leaves=2
num_cat=0
split_feature=150
split_gain=2.32602
threshold=41.666666666729832
decision_type=10
left_child=-1
right_child=-2
leaf_value=0.034078904319094695 -0.042977342763291675
leaf_weight=1.9460670873522761 1.9715031776577232
leaf_count=17 24
internal_value=-0.00469938
internal_weight=3.91757
internal_count=41
is_linear=0
shrinkage=0.05


Tree=88
num_leaves=2
num_cat=0
split_feature=150
split_gain=2.13247
threshold=41.666666666729832
decision_type=10
left_child=-1
right_child=-2
leaf_value=0.032585789694491989 -0.041685900915177161
leaf_weight=1.9337980132550003 1.9319746829569338
leaf_count=17 24
internal_value=-0.00453254
internal_weight=3.86577
internal_count=41
is_linear=0
shrinkage=0.05


Tree=89
num_leaves=2
num_cat=0
split_feature=150
split_gain=1.95396
threshold=41.666666666729832
decision_type=10
left_child=-1
right_child=-2
leaf_value=0.031145594016817268 -0.040405543552997941
leaf_weight=1.9223579578101637 1.8945047967135904
leaf_count=17 24
internal_value=-0.00436891
internal_weight=3.81686
internal_count=41
is_linear=0
shrinkage=0.05


Tree=90
num_leaves=2
num_cat=0
split_feature=150
split_gain=1.78944
threshold=41.666666666729832
decision_type=10
left_child=-1
right_child=-2
leaf_value=0.029757530368498944 -0.039137818484713288
leaf_weight=1.9117064420133831 1.8589966557919977
leaf_count=17 24
internal_value=-0.00420861
internal_weight=3.7707
internal_count=41
is_linear=0
shrinkage=0.05


Tree=91
num_leaves=2
num_cat=0
split_feature=125
split_gain=1.89877
threshold=1.5000000000209292e-05
decision_type=10
left_child=-1
right_child=-2
leaf_value=-0.030419718091201326 0.045919318601388093
leaf_weight=1.6230817139148714 1.6351779028773306
leaf_count=22 18
internal_value=0.0078915
internal_weight=3.25826
internal_count=40
is_linear=0
shrinkage=0.05


Tree=92
num_leaves=2
num_cat=0
split_feature=16
split_gain=1.75255
threshold=-1.0000000180025095e-35
decision_type=2
left_child=-1
right_child=-2
leaf_value=0.044401657489947767 -0.029155142884232085
leaf_weight=1.615654828026891 1.6234728209674356
leaf_count=18 22
internal_value=0.00753449
internal_weight=3.23913
internal_count=40
is_linear=0
shrinkage=0.05


Tree=93
num_leaves=2
num_cat=0
split_feature=46
split_gain=1.8425
threshold=0.00012282386007922422
decision_type=2
left_child=-1
right_child=-2
leaf_value=-0.029064390253319829 0.046644762062686369
leaf_weight=1.6780091337859633 1.5421965923160312
leaf_count=23 17
internal_value=0.00719366
internal_weight=3.22021
internal_count=40
is_linear=0
shrinkage=0.05


Tree=94
num_leaves=2
num_cat=0
split_feature=16
split_gain=1.5088
threshold=-1.0000000180025095e-35
decision_type=2
left_child=-1
right_child=-2
leaf_value=0.041263033951937339 -0.027435596557273845
leaf_weight=1.5968100316822531 1.6001304779201744
leaf_count=18 22
internal_value=0.00687804
internal_weight=3.19694
internal_count=40
is_linear=0
shrinkage=0.05


Tree=95
num_leaves=2
num_cat=0
split_feature=142
split_gain=1.61775
threshold=1.6452780680307669e-05
decision_type=8
left_child=-1
right_child=-2
leaf_value=-0.029027008082364136 0.042296048870099856
leaf_weight=1.5932886153459551 1.586903342977166
leaf_count=26 14
internal_value=0.00656292
internal_weight=3.18019
internal_count=40
is_linear=0
shrinkage=0.05


Tree=96
num_leaves=2
num_cat=0
split_feature=135
split_gain=2.36389
threshold=0.1476828065606384
decision_type=8
left_child=-1
right_child=-2
leaf_value=-0.038821754344870792 0.043715889492839666
leaf_weight=1.7877978943288324 1.685177341103554
leaf_count=29 12
internal_value=0.00122764
internal_weight=3.47298
internal_count=41
is_linear=0
shrinkage=0.05


Tree=97
num_leaves=2
num_cat=0
split_feature=135
split_gain=2.18601
threshold=0.1476828065606384
decision_type=8
left_child=-1
right_child=-2
leaf_value=-0.037871403827255457 0.042429886926003219
leaf_weight=1.7422010935842989 1.6503381766378882
leaf_count=29 12
internal_value=0.00119205
internal_weight=3.39254
internal_count=41
is_linear=0
shrinkage=0.05


Tree=98
num_leaves=2
num_cat=0
split_feature=135
split_gain=2.02072
threshold=0.1476828065606384
decision_type=8
left_child=-1
right_child=-2
leaf_value=-0.036923186397922365 0.041171963665914253
leaf_weight=1.6987143568694589 1.6165925450623038
leaf_count=29 12
internal_value=0.00115716
internal_weight=3.31531
internal_count=41
is_linear=0
shrinkage=0.05


Tree=99
num_leaves=2
num_cat=0
split_feature=135
split_gain=1.86716
threshold=0.1476828065606384
decision_type=8
left_child=-1
right_child=-2
leaf_value=-0.035977879633328318 0.03994089595445903
leaf_weight=1.6572479140013454 1.5839404799044134
leaf_count=29 12
internal_value=0.00112296
internal_weight=3.24119
internal_count=41
is_linear=0
shrinkage=0.05


Tree=100
num_leaves=2
num_cat=0
split_feature=135
split_gain=1.72453
threshold=0.1476828065606384
decision_type=8
left_child=-1
right_child=-2
leaf_value=-0.035036309061869407 0.038735654273312103
leaf_weight=1.6177143538370726 1.5523770116269591
leaf_count=29 12
internal_value=0.00108943
internal_weight=3.17009
internal_count=41
is_linear=0
shrinkage=0.05


Tree=101
num_leaves=2
num_cat=0
split_feature=57
split_gain=1.87899
threshold=0.31455416075003495
decision_type=8
left_child=-1
right_child=-2
leaf_value=-0.025666477206046642 0.056643505161913202
leaf_weight=1.506911304779351 1.2842932250350712
leaf_count=26 16
internal_value=0.0122061
internal_weight=2.7912
internal_count=42
is_linear=0
shrinkage=0.05


Tree=102
num_leaves=2
num_cat=0
split_feature=57
split_gain=1.71085
threshold=0.31455416075003495
decision_type=8
left_child=-1
right_child=-2
leaf_value=-0.024676362801656158 0.054239533738860514
leaf_weight=1.4894617581740024 1.27441880851984
leaf_count=26 16
internal_value=0.0117116
internal_weight=2.76388
internal_count=42
is_linear=0
shrinkage=0.05


Tree=103
num_leaves=2
num_cat=0
split_feature=93
split_gain=1.63596
threshold=1.0000000180025095e-35
decision_type=10
left_child=-1
right_child=-2
leaf_value=-0.028344366573824095 0.048953184598724053
leaf_weight=1.3371802885085347 1.4024305669590829
leaf_count=23 19
internal_value=0.0112249
internal_weight=2.73961
internal_count=42
is_linear=0
shrinkage=0.05


Tree=104
num_leaves=2
num_cat=0
split_feature=110
split_gain=1.58167
threshold=0.55818720134716704
decision_type=10
left_child=-1
right_child=-2
leaf_value=-0.026493611059542212 0.049846776394943358
leaf_weight=1.3905228972435 1.3250347310677169
leaf_count=22 20
internal_value=0.0107561
internal_weight=2.71556
internal_count=42
is_linear=0
shrinkage=0.05


Tree=105
num_leaves=2
num_cat=0
split_feature=57
split_gain=1.55406
threshold=0.31455416075003495
decision_type=8
left_child=-1
right_child=-2
leaf_value=-0.024885042162834416 0.051230575993144858
leaf_weight=1.4514191290363672 1.2465176973491905
leaf_count=26 16
internal_value=0.0102824
internal_weight=2.69794
internal_count=42
is_linear=0
shrinkage=0.05


Tree=106
num_leaves=2
num_cat=0
split_feature=150
split_gain=1.69277
threshold=52.272727272680306
decision_type=10
left_child=-1
right_child=-2
leaf_value=0.039271900208852885 -0.03165663809766061
leaf_weight=1.8466730043292048 1.5449493695050476
leaf_count=20 24
internal_value=0.00696258
internal_weight=3.39162
internal_count=44
is_linear=0
shrinkage=0.05


Tree=107
num_leaves=2
num_cat=0
split_feature=50
split_gain=2.33091
threshold=-1.0000000180025095e-35
decision_type=8
left_child=-1
right_child=-2
leaf_value=-0.030641349966479776 0.05303122720382808
leaf_weight=1.8673290871083734 1.5017047086730602
leaf_count=22 22
internal_value=0.00665466
internal_weight=3.36903
internal_count=44
is_linear=0
shrinkage=0.05


Tree=108
num_leaves=2
num_cat=0
split_feature=151
split_gain=1.58479
threshold=-1.0000000180025095e-35
decision_type=8
left_child=-1
right_child=-2
leaf_value=-0.025985338902941097 0.043023541136840315
leaf_weight=1.7742829639464615 1.5664835749194028
leaf_count=22 22
internal_value=0.00637289
internal_weight=3.34077
internal_count=44
is_linear=0
shrinkage=0.05


Tree=109
num_leaves=2
num_cat=0
split_feature=35
split_gain=1.86717
threshold=-1.3875397580909163e-07
decision_type=8
left_child=-1
right_child=-2
leaf_value=-0.028670097299011668 0.046345050605840044
leaf_weight=1.7918380387127397 1.5445619449019434
leaf_count=21 23
internal_value=0.00605762
internal_weight=3.3364
internal_count=44
is_linear=0
shrinkage=0.05


Tree=110
num_leaves=2
num_cat=0
split_feature=35
split_gain=1.88902
threshold=-1.0000000180025095e-35
decision_type=8
left_child=-1
right_child=-2
leaf_value=-0.028286058853921665 0.047587885828372645
leaf_weight=1.826711321249604 1.489017475396395
leaf_count=22 22
internal_value=0.00578718
internal_weight=3.31573
internal_count=44
is_linear=0
shrinkage=0.05


Tree=111
num_leaves=2
num_cat=0
split_feature=151
split_gain=2.1315
threshold=-1.0000000180025095e-35
decision_type=8
left_child=-1
right_child=-2
leaf_value=-0.03036171132230385 0.058008202790844787
leaf_weight=1.4005474857985971 1.3307023560628297
leaf_count=20 20
internal_value=0.0126933
internal_weight=2.73125
internal_count=40
is_linear=0
shrinkage=0.05


Tree=112
num_leaves=2
num_cat=0
split_feature=151
split_gain=1.92757
threshold=-1.0000000180025095e-35
decision_type=8
left_child=-1
right_child=-2
leaf_value=-0.02915308418280721 0.055089833046376269
leaf_weight=1.3860597964376209 1.3311296813189986
leaf_count=20 20
internal_value=0.0121169
internal_weight=2.71719
internal_count=40
is_linear=0
shrinkage=0.05


Tree=113
num_leaves=2
num_cat=0
split_feature=151
split_gain=1.74185
threshold=-1.0000000180025095e-35
decision_type=8
left_child=-1
right_child=-2
leaf_value=-0.0279753017265039 0.052277492832589291
leaf_weight=1.3725470304489134 1.3325693216174843
leaf_count=20 20
internal_value=0.0115581
internal_weight=2.70512
internal_count=40
is_linear=0
shrinkage=0.05


Tree=114
num_leaves=2
num_cat=0
split_feature=28
split_gain=1.54079
threshold=0.3145658844844979
decision_type=8
left_child=-1
right_child=-2
leaf_value=-0.027163626608647358 0.048454323042558443
leaf_weight=1.334162646904588 1.3606969062238929
leaf_count=26 14
internal_value=0.0110176
internal_weight=2.69486
internal_count=40
is_linear=0
shrinkage=0.05


Tree=115
num_leaves=2
num_cat=0
split_feature=28
split_gain=1.40683
threshold=0.3145658844844979
decision_type=8
left_child=-1
right_child=-2
leaf_value=-0.026224355507679254 0.046493622872375739
leaf_weight=1.3133906591683628 1.3475201241672037
leaf_count=26 14
internal_value=0.010601
internal_weight=2.66091
internal_count=40
is_linear=0
shrinkage=0.05


end of trees

feature_importances:
Column_135=20
Column_150=13
Column_164=12
Column_28=7
Column_64=7
Column_57=6
Column_108=6
Column_143=5
Column_106=4
Column_151=4
Column_172=4
Column_109=3
Column_158=3
Column_16=2
Column_35=2
Column_85=2
Column_114=2
Column_165=2
Column_46=1
Column_50=1
Column_70=1
Column_79=1
Column_80=1
Column_93=1
Column_110=1
Column_125=1
Column_142=1
Column_160=1
Column_171=1

parameters:
[boosting: gbdt]
[objective: binary]
[metric: auc]
[tree_learner: serial]
[device_type: cpu]
[data_sample_strategy: bagging]
[data: ]
[valid: ]
[num_iterations: 150]
[learning_rate: 0.05]
[num_leaves: 31]
[num_threads: 8]
[seed: 42]
[deterministic: 0]
[force_col_wise: 0]
[force_row_wise: 0]
[histogram_pool_size: -1]
[max_depth: -1]
[min_data_in_leaf: 20]
[min_sum_hessian_in_leaf: 0.001]
[bagging_fraction: 0.8]
[pos_bagging_fraction: 1]
[neg_bagging_fraction: 1]
[bagging_freq: 5]
[bagging_seed: 400]
[bagging_by_query: 0]
[feature_fraction: 0.8]
[feature_fraction_bynode: 1]
[feature_fraction_seed: 30056]
[extra_trees: 0]
[extra_seed: 12879]
[early_stopping_round: 0]
[early_stopping_min_delta: 0]
[first_metric_only: 0]
[max_delta_step: 0]
[lambda_l1: 0]
[lambda_l2: 0]
[linear_lambda: 0]
[min_gain_to_split: 0]
[drop_rate: 0.1]
[max_drop: 50]
[skip_drop: 0.5]
[xgboost_dart_mode: 0]
[uniform_drop: 0]
[drop_seed: 17869]
[top_rate: 0.2]
[other_rate: 0.1]
[min_data_per_group: 100]
[max_cat_threshold: 32]
[cat_l2: 10]
[cat_smooth: 10]
[max_cat_to_onehot: 4]
[top_k: 20]
[monotone_constraints: ]
[monotone_constraints_method: basic]
[monotone_penalty: 0]
[feature_contri: ]
[forcedsplits_filename: ]
[refit_decay_rate: 0.9]
[cegb_tradeoff: 1]
[cegb_penalty_split: 0]
[cegb_penalty_feature_lazy: ]
[cegb_penalty_feature_coupled: ]
[path_smooth: 0]
[interaction_constraints: ]
[verbosity: -1]
[saved_feature_importance_type: 0]
[use_quantized_grad: 0]
[num_grad_quant_bins: 4]
[quant_train_renew_leaf: 0]
[stochastic_rounding: 1]
[linear_tree: 0]
[max_bin: 255]
[max_bin_by_feature: ]
[min_data_in_bin: 3]
[bin_construct_sample_cnt: 200000]
[data_random_seed: 175]
[is_enable_sparse: 1]
[enable_bundle: 1]
[use_missing: 1]
[zero_as_missing: 0]
[feature_pre_filter: 1]
[pre_partition: 0]
[two_round: 0]
[header: 0]
[label_column: ]
[weight_column: ]
[group_column: ]
[ignore_column: ]
[categorical_feature: ]
[forcedbins_filename: ]
[precise_float_parser: 0]
[parser_config_file: ]
[objective_seed: 16083]
[num_class: 1]
[is_unbalance: 0]
[scale_pos_weight: 1]
[sigmoid: 1]
[boost_from_average: 1]
[reg_sqrt: 0]
[alpha: 0.9]
[fair_c: 1]
[poisson_max_delta_step: 0.7]
[tweedie_variance_power: 1.5]
[lambdarank_truncation_level: 30]
[lambdarank_norm: 1]
[label_gain: ]
[lambdarank_position_bias_regularization: 0]
[eval_at: ]
[multi_error_top_k: 1]
[auc_mu_weights: ]
[num_machines: 1]
[local_listen_port: 12400]
[time_out: 120]
[machine_list_filename: ]
[machines: ]
[gpu_platform_id: -1]
[gpu_device_id: -1]
[gpu_use_dp: 0]
[num_gpu: 1]

end of parameters

pandas_categorical:null
